#ifndef HIDDEN_LAYER_BIAS_H
#define HIDDEN_LAYER_BIAS_H

#include <stdint.h>

#define HIDDEN_LAYER_BIAS   512

// 512 * None
int32_t hidden_layer_bias[HIDDEN_LAYER_BIAS] = {
1602, -572, -769, -2180, -92, -124, -956, 1032, 2858, 2007, -110, 1432, -624, 2295, -1580, -1067, 904, 689, -2923, -1471, -1214, -306, 598, 2030, -276, 1510, -500, -915, -1052, 256, -908, 1293, 527, -1950, 207, -2600, 215, 3059, -69, -2652, -169, -404, 4948, 1998, 1899, -610, -2039, 1103, 1427, 1323, 
83, 3360, 2594, 4036, -1423, -2002, -34, 2049, -1637, 4325, -244, 977, 2519, 968, -1636, 2422, 2963, -3298, 3989, -245, 4008, 1069, -3271, 489, 495, 858, 95, 1538, 2357, 1117, -852, 1531, -1635, -559, -2498, 257, -1804, -99, 2196, 396, 955, 557, -570, -631, 726, -275, -253, 812, 2636, 3585, 
3209, 799, 2392, 638, 2634, 538, 2844, 5102, 1973, -211, 5299, -319, 2414, -744, 1336, -282, -1664, 609, -1573, -1629, -15, 2993, 924, 4167, 1460, 1104, -616, 3750, 3922, 3015, -403, -1431, 1052, 2206, -964, -1638, 2821, 1338, 2582, -512, 132, -1370, -38, 954, -1873, -1798, 1725, 2847, 1041, 2189, 
522, -753, -993, 5651, -2275, 560, -933, 1540, 6857, 1828, 2367, 598, 3879, 1974, -2362, 1128, 1017, -273, 2588, 2423, 2089, -2962, 1081, 450, -2189, 2364, -2384, 1667, 432, 4983, 2773, 3412, -2719, 4662, 1664, 3578, 977, 239, 3144, 4445, 1880, 219, -1539, 404, -993, -818, -1277, -2144, 743, 4070, 
2863, 2744, 1625, -2953, -124, 345, 689, 2618, 448, 2275, 1000, -826, -587, 3314, 1243, 2597, -2282, -842, 1002, 2989, 2173, 363, -345, -210, 1068, 4095, 1535, 1116, -525, -1685, -711, -618, -1489, -65, -471, 525, 349, -2680, 466, -315, -2492, 2295, -2442, -1398, 1510, 1411, -1276, 2095, 340, 1780, 
1450, 1835, 60, -1512, 97, 470, 2320, 455, -2117, -471, -1237, 634, 3252, -987, 712, 534, 2838, 2396, -949, 3622, 274, -28, 1429, -1041, -1293, 9, 1658, 1784, -1185, 1978, -1082, 1483, 719, 940, 1329, 2984, -2746, -1537, 1463, -2815, 2001, 2393, 2390, 1848, -313, -166, 204, 1067, -480, -2066, 
1318, 580, -436, 1916, 177, 740, -1620, 399, 971, -1054, 4459, -2746, 484, 1266, 852, -2438, 200, 1194, 2371, -4213, 1989, 1849, 1844, 3618, -114, 700, 1640, 965, 501, 4291, -1768, 1712, 2325, 1465, 3118, -479, -1578, -1386, -1299, 204, 1762, -3027, -2026, 1064, -369, 1639, -1868, 226, 4813, 2270, 
597, 1380, 2851, 1651, 2858, 765, 1431, -2474, 1426, 1141, 1169, 1997, -2536, 4912, -2608, -2179, -1576, -1875, 622, 1079, 2472, -1789, 2066, 2438, 1197, 148, 2223, -2522, -2115, 2305, 1492, 96, 2763, 829, -104, 3156, -739, 1389, 215, 432, -1442, 1867, 5140, 441, -38, -286, -2392, 499, 2742, -3006, 
1588, 1355, -1909, 1903, -842, 4516, 186, 1373, -673, 2771, -506, -2668, 2441, 3427, 3106, 2663, -588, -19, 451, -411, 2942, 1405, 772, -205, 1140, 2424, -2079, -1538, -1140, -1547, 2846, 3336, -622, -1038, 4064, 2250, 1777, 3401, 2475, 156, -1085, 371, -2610, 1281, 600, -1466, -955, 2846, -2363, -2098, 
-1209, 1920, -2785, 360, 3098, 1363, -2325, -360, -805, 608, 2756, 1179, 420, 819, 263, 4310, -1611, 2178, 2932, -39, 4025, -985, 886, 511, -388, 1575, 2003, 1458, -2874, 1232, 2500, 2367, -1408, 5625, 1763, -89, 1677, -584, 1910, 4982, 2939, -493, -2238, 3253, 2441, 2073, 373, 165, 3215, 421, 
-1237, 1072, 3114, -1947, 888, -323, 970, 5058, 2959, -1467, 3690, 491, };

#endif
