#ifndef FC2_WEIGHT_H
#define FC2_WEIGHT_H

#include <stdint.h>

#define FC2_WEIGHT   10080

// 84 * 120 * None * None
const int8_t fc2_weight[FC2_WEIGHT] = {
-53, 8, 45, 44, 16, 15, 16, 36, 33, 22, 38, 13, 15, -23, 52, -14, 22, 46, -40, -49, -6, -34, 48, -17, -58, 50, -6, 62, 30, 34, 43, 51, 51, -2, 22, 13, -10, -16, -45, -33, 60, 26, -29, -44, -50, -28, -50, 47, 11, -39, 
44, 64, -46, -45, 26, 65, -14, 56, 0, -31, -29, 34, -7, -26, -36, 16, 7, 35, 30, -40, 10, 28, -47, -28, -22, -71, -42, -37, 56, -12, -46, -42, -30, -28, -10, 18, 54, -27, -28, 9, -16, 38, 28, 34, -47, -16, 31, -36, -40, 16, 
52, 4, -15, -3, -34, -5, 70, 54, -31, -25, -7, -50, 11, -21, 10, -45, 20, -20, 52, 36, 25, 26, -23, -24, -6, 15, 16, -5, 27, 30, 11, -44, 30, 8, -45, 16, -52, -12, -25, -27, -56, -43, 28, 48, 3, 39, -28, -17, 13, 8, 
26, 15, -44, 43, 36, 28, 26, 37, 6, 5, -35, 58, 63, 59, -49, -18, 38, -44, -41, 6, -39, -41, -50, -16, -18, 23, -57, -15, 63, 4, 96, 53, -31, 34, -40, 9, -13, 62, 23, 35, -1, -22, 36, -40, 33, -50, -60, 21, -31, -35, 
-1, -36, 50, 30, -30, 63, 26, -47, 1, 42, 34, 38, -38, 25, -2, 36, 4, 39, -30, 30, 76, -17, -42, 32, -23, 4, 24, 7, -2, 31, -23, -51, 54, -53, -8, 81, 69, -55, 18, -20, 37, 19, -48, 23, -43, -51, -24, 48, -47, 46, 
23, 29, -44, 40, -13, 3, -43, -19, 39, -18, -1, -18, -26, 29, 13, -16, -32, 39, -9, 2, 40, -9, -60, -45, 24, -38, 38, 6, 36, 27, -23, -7, -10, -41, -34, 52, 0, 52, -9, -36, -25, 15, 34, -4, 33, 0, -40, -28, -5, -50, 
-19, 6, 54, -13, -39, -11, -36, 31, -41, -24, 15, 4, 48, -19, -19, -4, -33, -18, 49, -29, -7, -33, 56, 26, 22, -27, 14, -14, 12, 15, -23, -49, 12, 2, -36, -26, -14, 2, 26, 44, 18, 22, -35, 48, 31, 43, 9, -12, 8, 26, 
-33, -27, 8, 13, 4, -41, -34, -34, 46, -30, -4, 36, -31, 21, -35, -40, -43, -61, -39, -27, -7, -13, -3, 35, -48, 43, 42, 34, -32, -20, 53, 0, -25, -1, -9, 59, -31, 19, 47, 37, 32, 27, 31, -51, 17, -5, 25, -22, -45, -57, 
33, -26, 40, -19, -42, 42, -24, -44, 41, 35, 26, 60, -30, -45, 24, 5, 47, -11, 11, -19, 34, 42, -22, -4, 31, 30, 47, -43, 47, 21, -51, 13, -31, -17, -49, 1, 2, 14, 62, -27, -19, 40, 29, 3, -36, 19, -35, -31, -24, -30, 
-15, 28, -52, -2, -30, 60, -61, 5, -11, -7, -51, -30, -9, 16, -35, 39, 39, 39, 32, -31, 36, 49, -32, -11, -17, -32, 7, 1, 25, 41, -37, -49, -4, 51, -5, -42, -44, -18, -36, -35, 29, 10, 43, 7, -26, 42, 39, 19, 41, -41, 
25, 10, -38, -51, 8, -13, -3, 24, -9, -48, 25, 27, -35, -33, -5, -2, 41, -33, 22, 38, -8, 5, -13, -22, -18, 50, -9, -44, -48, -19, 0, -39, 36, -27, -28, -7, 38, -1, -42, -34, 41, -17, 26, 22, -19, 22, 31, 39, 40, -47, 
4, -23, -5, -38, -36, 8, -15, -1, -6, 21, 3, -39, -34, 24, 36, -53, -35, -50, 8, -34, -12, 53, 35, 19, -37, 50, -47, -51, 14, -53, -9, -31, -38, -2, -17, 41, -12, 47, -38, 51, 44, -26, 45, -17, 16, -55, 35, 53, 34, -23, 
35, -6, -39, -36, -11, 39, 47, -32, -53, 31, -54, 28, 30, 33, -34, 25, -5, -16, -59, -56, 23, -14, 69, 40, 22, 30, 32, -32, 25, -24, 53, 2, -26, 1, 0, 2, 63, 32, -4, -33, 27, 18, 28, 73, 16, 40, 34, 30, -4, -40, 
25, 56, -17, 55, -29, -20, 84, 1, 12, 15, -29, -51, 77, 48, -22, 51, 17, -31, 62, 28, 36, -33, -48, -6, -34, -30, -35, -62, -16, -49, -14, -41, 70, 47, 68, 38, -43, -18, 24, 8, -29, 17, -6, 68, -62, -37, -3, -25, -31, 25, 
-25, 20, -21, -15, -68, -15, 10, 5, 59, -21, -22, -15, 42, -62, 35, 23, -49, -9, 46, -32, -24, -19, -2, 26, 7, -17, 41, 37, 36, 13, 41, 51, 47, 23, 50, -19, 19, -6, -43, 8, 7, 34, -54, -14, 43, 1, -27, -38, 1, 36, 
32, -45, 23, 36, 7, 18, 39, 0, -45, 27, 53, 17, 40, -40, 21, -28, -25, -18, 12, -17, -22, -28, 14, -1, -20, 37, 21, -9, -15, 10, -24, 9, -31, -20, -6, -26, 35, -10, 25, -44, 0, -44, 5, -18, -8, 27, -45, -9, 20, 6, 
-38, 24, 22, 0, -32, -26, 49, -2, 24, -51, -24, 22, -4, -39, -44, 45, -38, 28, -34, -37, 16, -18, 0, 36, -54, -25, -40, 12, -44, 21, 33, -53, 36, -49, 38, -48, -1, 43, 19, 25, 17, 18, 16, 29, -31, -38, -28, -25, 4, 41, 
-8, -11, 48, -43, 52, 24, 46, -46, -10, -37, 8, 24, 46, -39, -36, 46, -2, 8, 46, 2, -39, 15, -33, -12, 16, -35, -20, -29, 41, -38, -43, -46, -42, -32, -1, 29, 1, -6, -24, 35, -16, -4, -39, 1, -9, 27, -4, -37, -33, -19, 
57, -39, -5, -10, 15, -19, 45, 30, -31, 17, -44, -38, 11, -6, -39, -53, 38, -46, 60, 45, 7, -22, 34, 57, -15, 12, 60, -45, 19, -5, 21, 22, -32, 1, 4, -12, 38, -14, 16, -23, -6, -6, -16, 47, -58, 36, 20, -31, -10, 18, 
-20, 34, 35, -26, 11, -40, -47, 36, 11, 20, 23, 19, 70, -47, -17, -12, 40, 32, 25, 42, 22, -2, -5, 19, 37, -16, 42, -46, 43, 45, 47, -61, -23, -40, -43, -10, -34, -20, -24, -23, -42, 14, 27, 5, 27, -52, 62, -10, -51, -43, 
-36, -49, 46, 61, -51, -31, 44, -49, 60, -37, 49, 10, -16, -36, 14, -18, -67, -25, 22, -25, 83, -24, -19, -28, -4, -46, -18, 17, 58, -9, 20, -33, -6, -21, -29, -22, -44, 42, 11, 38, 63, -20, 26, 77, -65, 22, 45, -34, 45, 49, 
33, 38, -10, -19, 74, 35, 10, 53, -20, 23, 58, 44, 7, -37, -65, -12, 14, 24, -69, 18, 57, 21, 26, -25, 34, -11, -12, -7, -44, -47, -12, -42, 6, 36, -6, -32, -37, 46, 43, -11, -2, -25, -29, -24, 13, -5, 49, -3, -53, -22, 
-39, 3, -1, 51, -41, 7, -3, -33, 13, -46, 41, -10, -31, 57, 42, -26, 2, 35, 35, 65, 46, -22, 11, -29, 17, -10, 5, 30, -16, -4, -47, 18, 6, -24, 71, -58, 6, -54, -15, 1, 21, 1, 19, 51, 42, 63, 29, -83, 21, 36, 
-17, 18, 3, 32, 14, -17, 47, 36, 49, -7, -4, -36, 60, -16, -40, 52, -19, -10, -35, -8, -43, -39, 43, 3, -53, -3, 51, 45, 3, -9, 60, -8, 41, 68, 66, 11, -32, -59, 24, -52, 9, -37, -51, 43, 39, -43, 23, 32, 54, -37, 
-53, 18, -30, 15, 22, -5, 36, -59, -40, -43, -1, 30, 43, -51, 21, 40, -40, 3, 27, 29, 7, 31, -33, -53, 19, 56, 1, -7, -27, 22, 12, -53, -49, -35, -12, -1, 17, 20, 43, 15, -32, 41, 17, 22, 18, -31, -41, 47, -3, -29, 
27, -35, 50, 20, 41, 38, -27, 43, 9, -51, 48, 34, 60, -38, 34, 49, -50, -12, -65, -13, 33, 43, 14, 12, 31, 14, -40, 6, -30, 15, 50, -9, 44, -9, 12, 30, -28, 46, 12, 3, -35, -39, -25, -24, -58, 54, 50, -18, -48, -8, 
19, 40, -41, 41, -44, -47, 23, 48, 45, -46, 48, 10, -42, -45, -35, 13, 22, -33, -1, 19, 23, 44, 4, 15, -5, -34, -3, 23, -9, -26, -46, 19, 43, 49, 13, -58, 7, 55, -5, -61, -43, 55, -15, -45, -2, 65, 32, -43, 37, 2, 
33, 13, 2, -12, -5, -1, -34, 13, -15, 22, 21, 18, -1, -2, -2, 40, -33, 9, -9, -64, 7, -24, 28, -20, -45, 9, 19, 44, 75, 2, -13, -8, -10, -46, 32, -26, -40, -41, 42, 4, -28, 27, -33, -30, -8, -27, -41, 52, 40, -31, 
-42, -27, 0, 17, -13, 57, 7, 4, -5, 15, 7, -27, -7, -31, -32, -54, -41, -27, 44, 30, 21, -46, -35, -11, 54, -33, 59, 7, 0, 7, 1, -55, 23, 56, 18, 67, 7, -24, -26, -17, 28, -4, 1, 10, -37, -25, -13, -16, 27, 15, 
28, -2, 37, -13, 35, -9, 50, 70, 2, 60, 82, 54, 40, 34, -8, -24, -30, 46, -12, -8, 25, -26, 19, -21, -9, 21, 60, 20, -9, -17, -3, -20, 61, 23, 2, -33, -54, -22, 42, 6, -40, 5, -43, -38, -62, 69, -33, -1, 69, -40, 
16, -47, 3, 25, 2, -47, -31, 41, 13, -46, 2, -4, 47, 26, -20, 25, 21, 62, 4, -23, 6, -9, -14, -29, 1, -44, 70, 18, -42, -32, 1, 12, 0, -26, -61, -58, -14, 30, 87, 10, -12, 35, -27, 44, -28, -23, 61, 0, -37, -46, 
31, -24, -23, -16, 40, -78, 9, 40, -7, 80, -30, -8, -18, 84, 0, -14, -23, -40, 72, -12, -35, 45, 58, 14, 42, -34, -49, 64, -42, -16, 21, -10, -10, -21, 35, 34, 29, -20, -7, -1, -24, 50, -6, -46, -38, -39, -50, 43, -54, 3, 
38, 21, 5, -38, -45, -21, 68, -17, 37, 46, -34, 51, -51, 45, -87, 43, 65, 38, 46, 26, -47, 37, 1, -8, 41, -28, -5, 51, 75, -26, 12, -34, -68, 11, -51, -28, 20, -27, 34, -50, 50, 26, -70, -4, 25, -50, -29, 5, 5, 11, 
5, 20, 38, 30, 2, 50, -9, -68, 36, 28, -28, -39, -14, 21, 22, -10, -51, -35, 49, 11, -65, -9, 34, 41, 24, -52, -36, 48, 14, 62, -35, -53, -1, -36, -24, 14, 7, -6, -23, 25, 10, -48, -13, 7, 12, 3, -25, -52, 26, -17, 
22, 29, 19, -49, -33, -6, 30, -25, -5, 2, 4, -18, 61, -8, 9, 9, 12, -8, -16, 23, -51, 48, 29, -51, -22, 26, -36, 44, 10, 31, 24, 57, -10, 28, 53, 3, 0, 19, 33, 0, 1, 33, 45, -6, -39, 44, 5, 0, -26, -34, 
8, -13, 3, 9, 9, 18, 4, 30, -26, 50, -46, 13, 29, -37, -12, -40, 26, -46, -35, 14, -15, -18, -37, -56, -11, -32, 25, 50, 6, -23, 47, 46, -30, -25, 12, 33, 46, 31, 29, -12, 71, -25, -46, -16, 40, 42, 66, 62, -2, 31, 
-24, 48, -61, 44, -40, -24, 2, -5, 51, -48, 30, -30, 25, 34, 26, 21, -39, -26, 12, 49, 24, 35, 88, 36, 50, -8, -31, -11, 28, 8, 13, 25, 44, 54, -3, -31, 37, -35, 46, 78, 26, -8, -3, -39, -4, -51, -59, -58, -13, -42, 
46, 18, 20, 51, -29, -40, 16, 33, 52, 12, -24, -31, 15, -38, 15, 46, 27, -20, -45, 40, -31, -19, 22, -40, 26, -17, -19, -25, -18, -51, 17, -32, 14, 30, 21, 67, 2, -38, -30, -17, 3, -19, 8, -8, -66, 15, 50, 42, 8, 35, 
4, -51, -25, 88, -49, 59, 27, 12, 53, -3, 14, 59, -12, -30, -4, 13, 18, 38, -8, 25, 47, -25, -33, -32, -12, 13, -9, 60, 11, 8, 7, 26, -4, 23, -41, 11, -45, -44, 28, 4, -9, 47, -46, -26, -36, 22, 38, 35, 19, 13, 
27, -31, -32, -57, -36, 31, 8, 34, -27, 20, 57, -26, 53, 19, 29, -3, -31, -19, 22, 59, -48, 44, -9, 2, -21, -35, -30, 35, 29, 3, 48, -27, 63, 38, 7, -3, 23, 1, -47, 23, 42, -48, 21, 6, 20, 10, -16, -36, 22, -9, 
-13, -8, -25, -27, 6, -13, -25, -47, 31, 26, -50, -38, 29, -12, 30, 32, 50, 24, -46, 43, 33, -40, -23, 27, 4, -22, 50, -5, -41, 41, 49, 41, 32, 19, 35, 49, 3, 68, 58, 40, 6, -35, -39, -9, -46, -45, 8, -23, 86, 31, 
-37, 36, -46, -37, 14, -17, -18, 51, -38, -47, 10, 40, 11, 25, 19, 36, 52, -49, 49, 41, -51, 44, 8, -41, 52, 42, 33, -29, -40, 39, 89, 5, -58, -61, 28, 19, 26, 33, -10, -14, 52, 47, -39, 52, -40, 57, -4, -39, 69, -51, 
59, -28, -20, -28, -19, -44, -10, -47, 34, 2, 46, -43, -64, -31, 48, -50, 46, 9, 70, -39, -10, 21, -20, -22, 22, -13, 61, -21, -22, 4, -9, -14, -38, -5, 26, 33, -49, 20, 17, -37, 57, -16, 2, 36, -4, -50, -45, 0, -3, 3, 
-49, -8, 11, -3, 41, 7, 16, 0, -15, 57, 28, -2, -15, 54, -67, -31, -13, -21, -46, 30, -33, 50, 22, 48, -35, 6, -16, 13, -54, -30, 15, 38, -10, -49, 31, -72, 40, 52, -48, -20, 9, -32, 33, -22, 26, 40, 14, -18, -9, 69, 
-3, 21, 2, -58, -7, 20, -36, -11, 46, 34, -23, 14, 60, -46, 49, 7, -35, -54, 33, 11, -16, 7, -15, -31, -16, -60, -23, 30, -57, 10, -34, -3, 44, 24, 43, 59, 33, 49, -5, 50, 18, -49, -40, -18, -18, -39, 52, 32, 46, -39, 
-12, 30, 62, 27, 28, 12, -5, -6, -21, 32, 52, 55, -5, 32, 76, 39, 45, 39, 8, 25, -49, -53, -45, -25, 30, -47, 54, 36, -36, -25, -53, 42, 49, -1, 62, -26, -37, -15, -43, -32, 8, -22, -39, -40, 30, 61, 21, -22, 32, 42, 
-18, 17, -31, -1, -31, -36, -43, 38, -20, 15, 7, 10, -11, -14, -61, 22, -32, 8, -11, 66, 41, 2, -22, 63, 24, 11, -27, -48, -7, 19, -15, -12, -31, 47, 41, 12, -14, 45, -17, 40, 82, -3, -68, -19, -44, -25, -49, 65, 70, -53, 
-48, 32, -14, -17, 67, -37, 19, -39, -23, -31, -69, -20, 61, -9, 11, 44, 14, 41, -4, 60, 72, 36, 1, -35, 43, 12, 37, 26, -23, -46, 43, 41, 13, -3, 27, 63, -29, -20, 3, -23, 42, -10, 11, -9, 31, -16, 63, -38, -24, -20, 
52, 8, -13, -4, 23, 46, 3, -39, -43, -11, 33, 22, 29, 3, -39, -25, -37, 20, 50, -42, -2, 1, 30, -14, -1, -17, 4, -46, -22, -22, -13, -26, -9, 47, 6, -12, 22, -28, -11, 3, -43, 3, -49, -29, 6, 46, -32, 4, 46, -4, 
-31, 33, -43, 15, -43, -47, 30, -8, -41, -10, -21, -52, -32, 50, -51, 25, -5, 23, 33, -2, 51, 49, -8, -47, -44, 28, 16, 35, 20, -1, -39, 6, 25, 38, 41, 21, -35, 21, 42, 19, -25, 21, 42, -33, 48, 31, 15, 20, -40, 38, 
-6, 50, 4, -44, -50, 4, 45, -47, -42, 18, -49, -30, 19, -34, -1, 25, -28, 0, -49, 15, 3, 29, -47, -52, 34, -48, -31, 20, -53, 17, 24, -36, 12, 14, -22, -26, -17, -17, -46, -20, 7, -43, -49, 24, -1, -50, 29, 42, 15, -41, 
-30, -27, 6, -28, 31, 46, 14, 6, -31, 4, -14, 48, -41, 36, -23, 31, -17, 34, -42, -10, 1, 27, 32, -50, 24, 40, -25, -39, -55, -44, -24, 51, -23, 31, 50, -34, 4, -48, 19, 52, -5, 44, -33, 6, -53, 27, 39, 17, 0, -51, 
-23, 14, 32, 2, 30, -18, -14, 7, 42, -49, 47, 11, 24, 15, -6, -29, -11, 40, 9, -3, 27, 53, 11, -35, -5, 1, -51, -1, 37, 35, -1, 16, -51, -49, -16, -43, -25, -52, -33, 47, 33, -6, 2, -73, 11, -32, -40, 38, -8, -50, 
-25, 28, 29, -13, -44, -22, 21, 22, -12, 63, -42, -22, 11, 12, -36, 22, 17, 19, 13, -5, 47, 46, 37, 23, -10, -27, -27, 33, 24, -10, 9, 5, 63, -26, -34, -24, 48, -29, 23, -14, -12, -37, 20, 26, -46, -31, 20, -36, 57, 24, 
-16, -24, -55, 20, 43, -5, 29, 57, -35, 0, 32, 4, 64, 25, 15, -21, -42, 54, 46, 13, -55, 13, 82, 9, -27, -23, -45, -10, -35, 38, 73, -3, -4, -76, 46, 52, -43, -17, -10, 34, 56, 51, 23, 37, 64, -12, 63, 34, 15, 34, 
75, 9, 36, 44, -36, 1, 4, 0, 40, -34, -6, -28, 8, -36, 24, -37, -27, -28, -14, 9, -11, -9, -52, -24, -27, 14, 7, 44, 34, 45, -23, -24, 64, 40, 44, 6, -24, -35, 34, -41, -35, 21, 33, -10, 35, -42, 11, 11, -12, -20, 
3, 55, -42, 1, -13, 27, 12, -44, 53, -1, 5, 58, -3, 8, -38, -7, 19, 52, 14, 17, 27, 27, -48, 14, -6, -15, 24, -23, 15, 23, 3, -3, 15, 9, -7, -9, -43, -25, 31, 23, -55, -24, 20, 44, -16, 9, 33, -49, 35, 7, 
1, -33, -11, -39, 2, 5, 20, 46, -57, 18, -9, 20, 12, 55, -22, 39, 59, -14, 48, 31, 4, -33, -54, 12, -3, -5, 18, 20, 44, -13, 6, 3, 23, 37, -47, -27, -3, -5, 59, -25, 9, -19, -7, -14, -27, -17, -9, -21, 38, 19, 
-33, 27, 48, -39, 30, -43, -52, -4, -49, -36, 5, 33, -49, 3, -6, -32, -29, 52, -26, 22, 32, -25, -40, -11, -3, -6, -34, 14, 22, -32, -40, -41, -12, -22, 9, -27, -53, 48, 5, 5, 33, 0, -24, -13, -50, 10, 9, -14, 32, -28, 
44, -25, 16, -39, 7, -4, -19, 57, 6, -40, -41, -49, -42, -34, -16, 1, -17, 0, -44, 21, 49, 25, -49, -52, 50, -15, -9, 4, 7, -12, 23, -10, 31, 3, 25, 15, 43, -11, 8, 32, 34, -11, 27, 47, 52, -24, -34, 32, -41, -50, 
-48, 28, 53, -41, -60, -27, -51, 37, 16, -8, -27, 14, 28, 45, -23, 39, -7, 21, 50, 20, 70, 13, -18, 26, -69, 19, -15, 35, 18, 13, 24, -4, -53, -12, 17, -14, 19, 46, 4, 4, 52, 47, 24, -3, 53, -11, 42, -54, -2, 45, 
-33, -17, -45, -36, -42, -9, -27, -44, 58, 7, -12, -18, -11, 15, 34, 15, 2, -8, -1, 32, -6, 42, 49, 58, -48, 15, 38, 63, -56, -39, 79, -54, -44, 29, 46, 16, 31, 5, 10, 40, 21, 40, 22, -21, -43, -40, 32, 38, 30, -42, 
-12, -20, -11, 6, -10, 59, 71, 67, -29, 25, -1, -70, -78, -53, 21, -42, -26, -5, -41, 44, 48, 29, -34, -20, -30, -16, -50, -51, -21, 6, -47, -44, 41, 39, -15, 9, 43, 14, 33, 48, -13, -50, 53, -25, -10, 84, 13, -17, 29, 9, 
36, -31, 28, -38, -27, -18, -28, -40, -33, 43, -48, 26, 63, -3, -45, -45, -9, -33, 76, 42, 34, -19, 33, 27, 40, 70, 25, 22, 2, 41, 60, -19, -57, 22, -5, -57, -12, 63, 18, -2, 26, -6, -3, -19, 42, -5, -24, -23, -18, 25, 
-46, -47, 75, 11, -69, 31, -43, -61, -26, 26, 20, -22, -19, -30, 55, 25, 39, -34, 58, -38, -18, 48, -49, 46, 65, 8, 62, -61, 15, -19, -27, -9, -16, 55, 25, 16, 15, 18, 0, -76, -22, -24, 13, 41, 76, 0, -27, -54, 17, -37, 
49, 15, -63, 27, 43, 81, -2, -23, 16, -13, 26, -40, 79, 13, 54, -30, -4, 7, -10, 12, 23, 6, 29, 50, 55, 24, 75, 35, 29, -46, -27, 54, 15, -6, 34, 36, -62, 16, 17, 3, 16, -2, -33, 31, -30, -1, 82, 14, 29, 5, 
-10, -8, 11, -9, 29, 21, 33, -25, 66, 41, -29, 20, -24, -31, 15, -42, 11, -70, 63, 21, -30, 9, 91, -37, -27, 44, -30, 57, -40, 52, -19, -46, -50, 82, -53, 5, 16, 27, -8, 42, 28, -39, -3, 71, -69, -28, -58, -6, 96, 18, 
-7, 66, -59, -69, 8, -26, 21, 74, 2, 70, 29, -36, 14, 50, -20, 18, 50, 32, -23, 37, -43, 45, -23, 12, 32, 10, 9, -29, -32, 53, -36, -29, 45, 9, -2, 54, 45, 15, -24, -5, -11, 41, -48, -18, -37, 21, -27, -24, 23, -25, 
-48, -45, 10, -8, -28, -46, 19, -9, 10, -44, 7, -40, -38, 13, -29, 35, 0, -4, -38, 13, -27, 17, 28, 25, 30, 34, 5, 17, 20, 26, 44, -14, 0, 7, -17, 32, 8, -44, -33, 14, -43, 50, 51, 32, -4, 7, 34, -29, 5, -28, 
-45, 19, -53, -51, -23, -33, 24, -48, -21, 36, -13, 22, -27, -41, 54, 20, -36, 16, 39, 48, 11, 16, 18, -51, -34, 7, 32, -7, -31, 31, 49, -43, -34, 37, 18, -37, 15, -4, -2, -53, -23, -21, 30, 31, -50, 28, -50, 8, -31, -53, 
1, -36, -29, -8, 18, 37, 50, -5, 10, -28, -28, -22, -43, 21, -21, 43, -35, -36, -40, 31, 42, -6, 33, -35, 8, 3, 25, 27, -37, 20, 50, -19, 21, -17, -36, 10, 36, 5, -18, -42, 11, -40, 24, 25, -18, 50, 50, -14, -57, 16, 
26, 43, -2, -11, 35, -47, 16, 37, -17, 31, -3, -43, -33, -48, 11, -36, -51, 31, 6, 18, 19, 34, -43, -1, 0, 50, -27, 52, -17, 48, -6, 6, 0, 35, -20, -22, 38, -41, -42, 53, 52, 49, -22, 34, 29, 34, 33, 0, -5, -5, 
-39, 34, -58, -32, 53, 7, 48, -8, -17, 0, 41, -8, 33, -28, -57, 32, -25, 22, -60, -20, -1, -41, 15, 17, -46, 25, 47, 4, -7, 13, 3, 41, -6, -30, -16, -6, 28, -13, -52, 53, 16, 27, -3, 55, -35, 21, 31, -32, -45, 38, 
-37, -43, 32, -4, 74, 38, -20, 14, 36, -3, 15, -34, 43, -48, 0, 70, -1, 24, -44, -44, 24, -43, 25, 28, -34, -12, 25, -51, -56, -8, 37, 17, 3, -24, -20, -1, 26, 55, -2, -32, -25, 16, -18, 24, -38, 30, 60, -40, -22, -37, 
-2, -31, 26, 66, 30, 5, -3, 30, 43, 1, -1, 43, -13, -15, 33, -28, 2, 49, 40, 22, 10, -27, -68, -22, 67, 24, -51, -17, 25, -4, 23, 39, -45, 52, -17, 45, 31, -46, 10, -38, 23, -61, 32, -19, 30, -50, -3, 11, 22, -28, 
-25, 24, 15, 28, -52, 43, -35, -35, -26, -16, 35, 31, -11, 41, -32, -29, 56, 68, -44, 43, -51, -23, 55, -54, 13, -13, -43, -26, 7, 48, 31, 5, 0, 44, 55, -38, -42, 27, -28, 40, 21, 23, -6, -2, -7, -34, -10, -68, -52, -32, 
44, -28, 79, 31, -24, -16, -18, -16, -47, -2, -34, -46, 22, 67, 20, -3, -18, 0, -10, 15, -10, -33, -11, 27, 29, -31, -47, 13, 23, -21, 38, 44, 100, -38, 4, 22, 43, 68, -19, -58, -1, -5, 5, 21, -20, -1, 9, 16, 28, 26, 
2, -3, 16, 29, -11, 52, -53, -29, 21, 12, 6, -32, -10, 0, -49, 29, 0, 53, -11, -50, -37, 0, 9, 11, -3, -47, -53, -27, 37, 0, -25, -9, 22, 15, -2, -39, -31, 45, -43, -28, -18, -26, -4, -25, 19, -6, 9, -1, 23, -39, 
18, 0, 12, -15, -19, 20, -13, 38, -50, 46, 30, 0, -26, -9, 16, -48, 15, -32, 5, -30, 15, 45, -35, 43, 38, -53, -39, 19, -17, -53, -36, -47, 42, -7, -9, -11, 53, -25, 28, -25, -16, 37, 7, -12, -34, -47, -23, -18, -24, -28, 
-53, 13, 4, -23, 9, -52, -4, -19, -5, -41, -47, -57, -37, -36, -16, 1, -41, 46, 16, -12, -6, -46, 30, 37, -15, 55, 13, -5, -35, -53, -12, 14, -35, -11, -26, -39, 18, -14, -26, 50, 28, 27, 36, 23, 1, -29, -19, 36, 4, 23, 
-40, -9, 53, 6, -23, 5, 17, -7, -68, 31, -25, -29, -33, -31, 68, 38, -41, 21, -21, -39, 31, -24, 15, -9, 56, -7, -53, 43, 20, 53, 27, 7, -18, 59, -50, 45, -22, -27, -41, 10, 34, 0, 33, -15, -23, -20, 30, -38, 5, -24, 
-23, 6, 49, 65, -31, 53, 54, -15, -66, -40, 12, -27, 22, 21, 36, 16, 17, 38, 14, 49, -27, 26, 86, 41, -4, 39, 16, 2, -31, 36, -23, 37, -40, 40, -6, 25, 35, 49, -29, 42, 48, -5, -22, -25, -32, 41, -23, 36, 38, 22, 
-41, 34, 23, -37, -50, 0, -4, 53, 32, -12, 27, -44, -69, 1, 33, 39, 1, -29, -23, 43, 22, -8, -36, -38, -48, 32, -25, -35, 20, 36, 13, -86, -36, -7, 76, -51, -19, 20, -49, -20, 22, -15, -44, -52, -2, 64, 21, -5, 30, 13, 
47, 30, -20, -21, -27, -6, 3, -67, -1, -40, -48, 29, 63, -49, 8, -24, 30, -17, -12, -49, -9, 32, 80, 68, 9, 15, -41, -1, -47, 14, 25, 45, 6, 53, 4, 14, -50, -6, 56, 0, 15, 11, -26, -25, 26, -11, 51, -27, 43, 57, 
6, 46, -51, 55, -13, -19, 54, 6, 4, -18, -38, -51, 28, 5, 30, 19, 45, -75, 17, -5, 10, -42, -4, 39, -61, -42, -8, -36, 40, 26, -32, 3, 30, -28, 15, -40, 45, 53, 16, 2, -21, -12, -18, 39, 44, -47, -17, -5, 12, 69, 
43, 15, -21, -58, 127, -7, -21, 44, -65, 43, 17, 33, 28, 13, -10, 60, 39, 25, 3, 56, -29, -43, -62, 2, -6, -40, -71, -42, -6, -46, -3, -38, 64, -22, -47, 23, 30, -24, 14, 36, 17, 45, 106, 74, 48, 53, 54, -4, -55, -36, 
21, 45, 37, 65, -78, -28, -71, 19, -31, -45, 8, 35, 76, -61, -16, -13, 52, 52, 62, 28, 53, 5, 65, 25, -20, 44, 12, -43, -33, -23, 39, 52, 11, -13, -26, -19, -45, 45, 30, 40, -44, -3, 28, -38, 14, 54, 3, 32, 29, 39, 
-44, 26, 8, 38, -18, -30, -11, 22, 19, 48, 11, 54, -5, 0, 52, -20, -11, 11, -19, -18, 5, 41, -1, 33, -66, 25, -67, 51, 57, 42, 11, -9, 51, -29, 14, -18, 4, -22, -2, -4, -13, 4, 49, -17, -50, 21, 15, 38, -2, -3, 
54, 32, -40, 5, 4, -49, -19, -52, -5, 16, -2, -22, -54, -11, 29, 19, -5, -19, 15, 37, -29, 8, -24, 5, -18, 7, -25, -17, -52, -1, 18, -42, -15, 49, 36, 40, 16, -77, -27, 17, -15, 40, 27, -2, 8, 20, 25, 14, -52, -52, 
2, 23, -26, 47, 36, 16, -2, -22, -35, 48, -33, -26, 43, 16, 31, 17, -10, 57, -1, -13, 54, 50, 13, -5, 48, -29, 31, 12, 9, -56, 21, -12, 26, 48, -34, 30, 37, -41, 55, 14, 7, -37, -3, 16, -36, 16, -22, 30, -4, 37, 
16, -18, 55, -28, 5, -21, -10, -1, 4, 19, -8, 7, 5, -6, 51, -50, -54, 47, -24, -47, 41, 56, 19, 24, -24, -33, 34, -4, 30, 51, -40, 28, -19, 21, -11, 1, -7, 19, -29, -36, -16, -4, -11, -53, -45, -34, -36, -46, 8, 13, 
-26, -39, 60, -5, -20, 16, -54, 2, 39, 34, -19, -16, 16, 20, -31, 30, 50, 34, 28, -2, 45, -43, 48, 31, -21, 0, -7, 50, -10, -52, -54, -33, 19, -36, -13, 10, -31, -44, 11, -43, 50, 23, -57, 34, -17, -11, 33, 25, -11, 65, 
21, 41, -8, 42, -53, 52, 51, 34, 16, -27, 7, 16, 6, -1, 18, -35, -46, 35, 38, 46, 6, 53, -18, -1, 19, 38, 34, 56, 38, 5, 30, -31, 58, -48, -46, -12, -10, 17, 9, 52, -52, -40, -35, 43, 26, 61, 20, -28, -25, -48, 
38, 4, -19, -53, 13, 27, 18, -32, -46, 15, 19, 18, 3, -13, -5, 37, 14, -12, -21, 52, -18, -20, 49, -9, 4, 64, 44, -59, -13, -50, -36, -29, 8, 53, 49, 12, 48, 57, 43, -45, -26, -37, 9, 42, 36, 68, 24, 10, 5, 44, 
17, -7, 57, 21, 23, -7, 29, -18, -44, -51, 1, -34, 56, 44, -47, 42, 40, -18, 41, -42, 23, -47, -52, 67, -18, 20, 29, -34, 19, -46, 47, -61, -2, -26, -54, 22, 69, -13, -53, -21, -5, 32, 0, 34, -20, 22, 31, -41, 74, -25, 
-27, -12, 31, 25, -35, 81, 84, 33, -34, 9, 32, 5, -31, 27, -34, 17, -44, 19, 35, 18, -11, 2, -39, 84, -15, -34, 40, -39, -36, -49, -47, -47, 36, -64, 60, -56, -67, 48, -13, -8, -74, -13, 70, -8, 30, 24, 17, -46, 19, 70, 
0, -24, -51, -42, -3, -31, -46, 7, 25, 31, 9, 4, 5, 9, 42, 11, 8, -29, -53, -38, 79, -45, -45, -25, -38, -35, 36, -41, 25, -17, 34, 30, 38, -64, -62, 55, -33, 6, -30, 49, 8, -29, 49, 8, 21, -8, 35, 37, -55, -16, 
-44, 64, -38, 30, -6, 58, -62, -32, -46, -51, 15, 70, 41, 13, 29, 10, 0, 87, -18, 47, 27, 41, -15, 48, 30, -22, -1, -5, 6, 24, -53, 7, -23, -38, -4, 25, -15, -51, -33, 42, 42, 31, 48, 52, 56, 22, 36, -9, 16, 12, 
42, -30, -28, -29, -71, 0, -41, -11, 16, -34, 35, -52, 38, 10, 4, -2, -3, -34, 59, 52, -5, 42, 11, 78, 56, -26, 43, 32, -20, -14, -48, -26, 59, 48, -23, 43, -25, -50, -26, -48, -38, -56, -18, -8, -21, -61, -35, 3, 18, 6, 
-40, -34, 20, 8, -2, 29, 23, -29, -44, 6, -42, -20, -2, -11, -43, 23, 53, 26, -45, 56, -6, -50, 33, 24, 89, 49, 11, -12, 9, -48, 42, 0, 40, -46, -34, -25, -4, 33, -14, 57, -30, 23, -59, 0, -37, -26, 30, 43, 26, 32, 
48, 38, 53, 54, -5, 13, -19, -7, -29, -27, 9, -4, 61, 106, 55, -27, 11, 36, -21, 38, -25, 32, -22, -16, -23, -54, -52, -19, 44, 53, 0, 55, 74, 0, 31, 79, -68, -10, 24, -48, -24, -31, 22, -2, 20, 30, -22, -71, 23, -45, 
48, -55, -17, 26, 36, -39, -23, -28, 17, -20, -36, -23, 74, 36, 48, 21, 13, 14, -37, -22, -31, 16, 28, 8, 44, 24, -22, -20, -2, 39, -62, -31, -23, 51, 31, 43, -33, 34, 42, -27, 51, -10, -9, 14, -31, -2, 64, 9, -21, -15, 
-66, 12, -40, 2, -25, -46, 31, 31, -13, 31, -39, 45, 21, -27, 31, 39, 20, 27, 6, -19, -11, -13, 52, -38, -12, -22, 45, 12, -30, -20, -2, 8, 30, 38, 19, -27, 14, -30, 19, 41, 25, -28, -11, 50, 56, -40, 31, -31, 55, 32, 
-66, 42, -53, 10, -15, -51, -65, 19, -5, -38, -28, 18, -28, -51, 43, -37, 36, -28, -5, 25, -31, -3, 25, 15, -59, 29, 46, 30, -13, -2, -37, -2, 38, -31, 7, 17, -33, -5, -1, 25, 45, -46, 1, 76, 25, -43, 48, 18, 1, 45, 
49, 28, 59, 64, 16, -23, -12, -40, -25, -44, 11, -37, 24, -18, 61, -54, -52, 6, 62, -23, 59, 0, 46, -22, 42, 61, -30, 8, 20, 43, -9, 23, 41, -40, 50, 21, -44, -44, -35, -20, -13, -55, -19, 40, -25, 10, 14, 14, 21, 4, 
6, -11, 11, 50, 52, 27, -15, 19, -11, -51, 35, -24, 36, 37, -29, -19, -11, -10, 65, -30, 55, -63, -17, -64, -5, 17, 21, -3, -18, 71, -44, 27, -6, 7, 49, -7, 9, -18, 56, 48, -44, -2, 16, 30, 23, -40, -40, -27, -34, -38, 
44, 5, -5, -34, 5, 76, 14, 54, 48, 18, -22, -52, 28, -40, 34, -30, 68, 20, 22, -30, -60, -10, 38, 30, 37, 12, -60, 15, -22, 0, 52, -1, -39, -26, 36, 54, 72, -55, 26, 6, -41, -44, -12, 22, -13, -41, 8, 47, -44, 54, 
-64, 27, 36, 1, 41, -46, 40, -28, 57, 19, -50, 45, 70, -10, 40, -41, -2, -33, -51, 19, 32, -47, 29, -25, -30, 49, 2, -32, 66, 46, 8, -1, 10, -38, -91, -39, 35, -47, -19, 51, -16, 14, 45, 52, 49, -60, -3, -16, -50, 8, 
-3, -49, -42, 47, -42, -19, -33, 49, 19, -26, -24, 36, -15, -8, -52, 53, -36, 40, -43, -11, 71, 28, 34, -28, 24, -36, 18, -24, -5, -24, 58, -46, 0, 54, 31, 42, 56, -38, -13, 30, -21, 55, -32, 27, 49, 51, -61, -58, -24, 0, 
-18, 40, 39, 9, -49, -3, 10, 37, -2, 49, -22, 21, 68, -39, 52, 49, 29, -14, 9, -36, 59, 15, 31, 6, -8, -14, 33, -42, 11, -33, 46, 43, 4, 26, 57, 11, 33, 68, 47, 6, 17, -34, -48, 67, -18, -24, -20, 9, 56, -6, 
8, 4, 46, 49, -55, 47, 5, 75, -4, -27, -21, -34, -15, 11, 10, 61, 12, -27, -4, 14, -28, 53, 39, -49, 66, -32, -20, -39, -22, -51, -34, 16, -35, -50, -61, 58, -28, -51, -33, -22, -46, -37, 17, 32, 29, 12, 18, -52, 33, 44, 
-23, 19, 51, 7, 15, 30, -50, 6, 14, 2, -63, 2, 7, 59, -14, 27, 63, 12, 17, -21, -16, -62, -18, -20, 34, -37, 69, 1, -68, -51, -71, 13, -34, -36, 44, -29, 4, 49, 60, 38, 50, -40, 28, -29, -7, 46, -46, -34, 30, -2, 
5, 18, 72, -21, 14, 22, 16, 36, 26, 40, 49, 7, 46, 19, -55, 7, -22, -60, -58, -28, -8, 1, 6, 23, 63, 61, -36, 15, 74, 38, -16, 77, 14, -19, -11, 12, -19, -32, 41, 23, -25, 16, 14, -43, -18, 30, -50, 51, -27, 17, 
39, -38, -46, -33, 16, 36, 32, -21, -18, 35, -5, 52, -27, -14, 19, 25, -44, 34, 35, 48, -36, -49, -44, -22, 30, -20, -42, 53, 1, 6, -43, 28, 0, -26, -24, -35, 39, -5, 25, -18, 23, -49, -45, -25, -45, -48, -43, -22, 23, 27, 
-5, 7, -6, -48, 49, 12, 39, 13, -33, 11, -53, -8, 14, -15, 39, -35, 35, -39, 43, -18, -54, 16, 14, 51, -35, 29, -45, -24, -40, 31, -33, -17, -9, -22, -10, -44, 34, -10, 24, 35, -34, 23, -7, -52, -22, 17, 17, -48, -15, 35, 
-37, -42, -5, 46, 15, 34, 11, 52, 8, -29, 16, -21, -7, 45, 34, 44, 26, 33, 23, 47, -42, -18, 5, 3, 19, -12, -18, 28, 3, -4, 25, -9, 17, 23, -14, 16, 45, 8, -30, 27, 35, -28, -21, 32, -45, -23, -33, 30, 15, 39, 
-41, 1, 14, 0, 0, 13, -32, -37, -43, 47, 3, 46, -13, 38, -45, 26, -40, -2, -35, 45, -8, -13, -1, -2, -46, 9, -21, 10, -26, 6, -45, 13, -49, -28, -5, -47, 18, 30, 44, -15, -35, -27, -21, -41, 21, -35, 31, -52, 31, -23, 
50, -43, -50, 35, -33, -32, -4, 18, -45, 21, -48, 20, 52, 3, -13, -18, -51, 2, -30, -7, -7, -43, -56, -41, 28, 7, 11, -10, 29, -3, 0, 7, -5, 4, 9, 49, 30, -57, 36, -43, 26, -13, 69, -17, -9, -20, 15, 21, 50, -1, 
49, 45, 57, -38, -16, 64, 44, -27, -5, 42, 11, -35, 59, -26, -16, 46, -36, 39, -1, -62, -25, -66, -27, -31, 28, 53, 95, -22, 41, 5, 1, 19, 56, 46, -13, 85, 11, 20, -12, -42, -46, -17, -67, -29, -40, -25, 41, 53, 21, -28, 
30, -23, 77, 60, -20, -7, 70, 68, 78, 17, -15, 49, -10, 59, -43, -72, 12, -76, 35, -47, 18, 44, 39, -80, 53, 62, -4, -4, -22, -53, -73, 14, 16, 32, 93, -47, 59, -64, 47, 22, -57, 68, 34, 69, 27, -87, 5, -46, -21, -19, 
-28, -51, 29, 24, 34, -56, 43, 84, 36, 7, -5, 26, 37, 29, 35, -52, 18, 12, -11, 12, 35, 30, -68, -37, -35, -32, -54, 39, 16, 47, -59, 54, -27, -9, -31, -30, 44, -10, -57, 37, -9, -15, 11, -35, 1, 14, 5, -19, -50, 59, 
10, -19, 0, -23, 24, 70, -8, 38, -20, -13, 43, 25, -10, 8, 56, -65, -45, 54, -1, -30, -18, -59, -25, -47, 40, 57, -30, -28, -22, -2, 39, 44, -16, 59, 49, -64, 17, -32, 18, 15, 7, -45, 33, 56, 38, 47, -3, 37, 28, 15, 
-16, -15, -7, 4, -57, -15, -19, 70, -32, 11, 25, -15, 29, -25, 41, 51, 78, -25, -38, 13, -5, -6, 21, -56, 26, 25, 30, 39, 3, -22, -41, 45, -51, -21, -21, -49, 41, 18, 34, -51, 56, -24, 49, 35, -17, 22, 10, 15, -21, -49, 
-55, -37, 9, -30, -25, 23, -5, 45, -45, 30, -44, -26, 33, 1, -21, 53, -22, -29, -58, 28, 36, 38, 5, -51, 42, -51, -44, 34, -32, 29, 7, 19, 20, 20, 5, 34, -16, 16, -70, -9, 43, 43, -28, -46, -3, 3, 19, 17, -18, 46, 
-34, -25, 13, 18, 55, 33, 23, -10, 40, -36, -27, -10, 17, 39, -15, 54, 63, 54, 3, 19, 18, -11, 11, -4, -6, -18, 15, 61, -39, 7, 26, 58, 5, -50, -25, 13, 22, 19, 28, 9, 51, -42, 6, -9, -9, 18, 1, -39, 12, -22, 
13, -50, 0, 54, -4, 46, -53, -22, 7, 12, 20, -36, 26, 25, -46, -21, -2, -55, -18, 38, -46, -16, 28, -31, -29, -39, -53, -8, 23, -26, -66, 47, 43, 4, 19, -32, 5, -22, 37, 33, 8, -51, 48, -32, -5, 13, -42, -23, -27, -4, 
0, -50, 5, -39, 19, 37, 9, 44, -24, 28, 25, -48, -12, 22, -61, 48, -32, 11, -35, 20, 43, 23, 73, 23, 48, 15, 20, -24, -21, -35, 33, -46, -27, 3, 47, -7, 56, -13, -21, 17, -10, 22, 13, 35, 55, 18, 59, 47, 52, 3, 
-32, 34, -32, 33, -14, -3, -54, 52, 21, 16, 20, -47, 22, -46, 51, -12, -37, -64, -32, -29, -10, 19, 22, 35, -6, 50, 44, -5, 28, -22, -54, -59, 53, 45, 14, 71, -26, 53, 45, -44, -33, 44, 32, -11, 28, -47, -29, -9, -14, 29, 
24, -30, 25, 40, -38, 2, 50, 15, -21, 74, 0, 60, 31, 51, -13, 2, 16, 8, 62, 27, 58, -78, 66, -43, 40, 52, -31, -64, 61, 19, 56, 49, -23, 11, -1, -73, 4, 38, -59, -23, -11, -44, -26, 18, -43, 11, -10, -14, -21, -39, 
3, -49, -22, 0, 16, -18, 15, 20, -47, -16, -21, -25, 14, 50, -69, 66, 55, 15, 63, 49, 51, -45, -8, -44, 10, 22, -57, 32, 24, -2, 28, 37, -43, 34, 46, -33, 34, 44, 56, -15, 24, 46, -64, 39, -23, -16, 50, 36, -30, -36, 
-63, -55, 23, 26, -43, 27, 15, 15, 41, 47, 10, 38, 9, -20, -19, 23, 16, 9, -47, 48, 36, 9, -3, 17, -50, -46, -22, 35, 36, 28, 42, -28, -53, 50, 4, 53, -33, 22, 53, -33, 86, -28, 5, -7, -16, -7, -26, 48, -21, -9, 
-3, -36, -61, 9, 45, -69, -6, 5, 67, -50, 8, -55, 42, -15, 23, 54, -27, 10, 42, 4, 32, 32, -27, 3, -45, -5, -51, -29, -11, -12, -13, -42, -39, 13, -36, -44, -26, -13, 39, 4, 37, -8, 58, -45, 51, 74, 4, 29, -10, 39, 
42, 2, 36, 9, 0, -9, 10, -46, -65, 29, 32, -55, 48, 7, -46, 52, -43, -4, 32, 37, -7, 57, 16, 23, 0, -20, -38, -6, -26, 19, -19, -23, 27, 55, 40, -3, 29, 6, 51, 65, -34, 26, 51, -48, -42, -20, 43, 21, 23, 11, 
32, -9, 29, 34, 27, -60, -20, 36, -11, 23, 24, 17, 37, -13, 20, 24, -7, 22, -24, 29, 12, -13, 56, 25, -52, 35, 3, -35, -64, 14, 21, -7, -17, 8, -29, 12, -16, 54, 3, 9, -7, -4, -20, -22, 37, 28, 48, -41, -43, 40, 
-27, 26, 14, 44, 49, 56, 8, -1, -6, 19, 41, 36, -27, 3, -46, 0, 44, -24, 21, -14, -30, -33, -55, -53, 81, 44, -44, 8, -41, 32, -42, 28, -51, -1, -36, 5, -33, -5, 44, 49, -35, -39, 73, -24, 58, 46, 53, -12, 47, -43, 
-28, -16, -37, -5, -40, -24, 61, 9, -1, 62, -5, 6, 40, -20, -48, 0, -16, 51, -46, 19, -19, -19, 45, 14, 81, 10, 64, -11, -39, 36, 19, 18, -33, 38, 50, 26, 29, -8, -29, -27, 25, -36, 44, -41, -5, 21, -57, 28, 57, -19, 
-21, -44, 63, -16, 17, -24, 4, 10, 21, -18, 61, -4, 30, 28, -53, 48, -44, -34, 19, -30, -11, -45, 9, 79, 21, 18, 51, -36, 28, -2, -42, 15, -18, 18, -31, 15, 6, -13, -21, -66, 29, 8, 8, 33, 26, 22, -31, -43, 4, 10, 
-5, -38, -4, -27, 49, 39, 41, 25, 47, -17, 29, 5, -33, -21, 31, -17, -4, -53, 44, -12, -53, -49, -48, -14, -32, -35, 37, -22, -5, 25, 17, -11, -3, -45, -20, 49, 15, -27, 30, 6, 49, 31, 33, 38, -38, -49, 50, -7, -48, 23, 
-49, -8, 52, 7, 6, -10, -41, -3, -41, 30, 12, -19, 2, 17, 49, 10, -37, -13, -42, -22, -2, 36, 31, -13, -52, -52, -8, 19, -42, 33, 37, -37, -49, -21, 21, 39, 54, 50, -15, -43, -6, -6, -10, -45, 20, -1, 32, 37, -29, 41, 
-52, -9, 49, -32, 44, 9, -19, -53, 7, 19, 17, 41, -23, -39, 15, 47, 18, -38, 41, -1, -6, -14, -39, -43, -16, 15, -41, 19, -17, -52, 7, -12, 53, -5, 23, 2, -31, -30, 48, -18, 24, -12, 4, -29, -3, -5, -28, 52, 25, -17, 
42, 3, -1, -20, -4, 30, 54, 45, -52, 1, -15, -8, -25, 4, -45, 2, 0, 11, -40, 32, -37, 19, -44, -28, -27, 0, -51, 44, -15, -2, 8, -50, 21, 51, 33, -19, 7, -49, 43, 11, -8, 22, 2, 20, 38, 33, -32, 13, 13, 43, 
-32, -27, -4, -44, -50, 14, -1, -7, 15, 12, -8, 24, 40, -23, 18, 0, 1, 27, 39, 24, 34, -46, -36, -41, 0, -11, -38, 50, 34, -30, -10, -18, 13, -34, 35, -30, 52, -60, 22, -16, -51, 42, 9, -49, -29, 29, 33, 35, 46, 41, 
80, -36, 32, 38, 15, -41, -37, 40, 45, -13, -24, -18, 7, 36, 11, 23, 47, 3, -49, -57, -25, 1, 42, 7, 14, 8, 2, 25, -52, -33, 52, 13, 2, -19, 9, 10, 41, 0, 12, -1, 28, 42, -27, -47, 9, 3, -3, -35, -55, 43, 
-5, -44, -12, 0, -49, 49, -35, 26, 56, -21, 58, 52, 26, 67, -48, -47, -24, -58, -27, -31, -50, -12, 6, 28, 27, 52, 15, 2, 57, -7, -46, -48, 18, -54, 27, -18, -11, 59, -40, -40, -84, 5, 49, 1, 32, -12, 2, 20, -20, -26, 
-6, -32, -3, 78, 0, -16, -22, 4, 10, 47, -30, 59, 1, -53, 65, -21, -29, 15, 39, -54, -17, 28, 7, -13, 58, -10, -23, -44, 18, -5, 58, 29, -13, -37, 34, 6, -5, -38, 24, -5, -15, 7, -40, -40, -31, -41, -4, 3, -46, -50, 
-32, 7, -5, 61, -59, 58, -18, -7, -29, -50, -2, -15, -18, 43, -9, -39, 8, 30, 27, -43, 8, -47, 11, 25, 55, 1, 68, -1, 56, -37, 3, 51, 18, -37, 33, 30, -16, 42, 41, -32, 34, -51, 44, 1, -26, 35, -19, -45, 30, -35, 
-13, 33, -31, 53, 36, -21, -16, -9, 40, 42, -8, 8, -39, 60, 15, 51, 24, 34, 45, 80, -38, -25, -14, -27, -62, -51, -11, -16, 18, 27, 37, -18, 41, 37, 7, 50, -51, 39, -1, -9, 19, 52, -6, 27, -47, -25, 38, 2, -5, 21, 
-16, -25, -35, 32, 35, -37, 70, -17, -30, 58, 7, -3, 15, 6, -20, 50, -37, 39, -16, -34, 31, 15, -35, -29, 37, -10, -19, -40, 68, -31, 46, 9, 21, 34, 57, -19, -48, 24, -22, -8, -25, -2, -33, 24, 5, 51, -21, 58, 4, 52, 
83, 20, -30, 78, -6, -32, 84, 45, -5, -6, -32, -44, 26, 59, -14, -33, -2, 6, -11, -43, -6, -6, -34, -50, 64, -49, -19, 74, -60, 33, 41, 30, 18, -36, 40, 22, 9, 15, 40, 31, -29, 4, 14, -43, 44, 46, 3, 0, 27, 41, 
52, -54, -18, -19, -38, 50, -7, 24, 27, 42, 64, -28, 42, 44, 6, -9, 34, 80, 42, -2, 29, 0, -3, 24, 9, -16, 120, 53, -5, 6, -78, -41, 82, 82, -41, -42, -39, -43, -28, -23, 8, 18, -50, 16, -16, 23, 39, 39, -33, -27, 
55, -33, 28, -24, -54, -42, -48, 35, 3, 1, -72, 34, -5, -48, 8, -27, 8, 53, -7, 49, 10, 42, 65, 39, -7, -57, 63, -25, -2, 3, -5, 53, 5, -1, -59, -10, -25, 23, 73, 28, -28, -18, 43, 30, -122, -20, 2, -7, 4, 44, 
-58, 19, 4, 2, 40, 20, -37, 45, -52, -66, 35, 33, 48, 22, -32, -17, 27, -4, -40, -11, -22, 45, -18, -23, -33, 46, -2, -11, -4, -19, -14, -31, -43, -47, -23, 37, -4, -17, 2, -27, -44, 23, 43, -33, -20, 53, -53, -47, 6, -37, 
17, -19, -21, 44, 32, -15, -1, -30, 47, 19, -18, -53, -37, 43, 3, -27, 25, 42, -3, 31, -51, -15, -47, -49, -32, 23, 1, -39, 8, 26, -11, 5, 40, -52, 11, -39, 47, -42, -53, -34, -19, 33, 10, -33, -42, 42, 43, -48, 31, 6, 
23, -47, -33, 43, -23, 9, -6, 43, 44, 22, -12, -44, -2, -5, -6, -41, 20, -11, 37, 10, -18, -54, 44, 26, 29, -12, -40, -44, -9, 48, 44, -33, 9, -32, -28, 24, -32, 24, -2, 40, -46, 11, -15, 29, -51, 25, 7, 34, -48, -25, 
8, 17, -43, -51, -15, -3, 29, -46, -9, 51, 28, 40, -8, -32, 33, -33, -32, -18, 40, -36, -37, -49, 8, -23, -45, 10, 43, -45, -36, -26, -1, 33, -6, 47, -18, 34, -23, -52, -15, -26, -44, -24, 18, 41, -47, 15, -32, -35, 6, -18, 
-38, 18, -31, 33, -47, -9, -50, -6, 3, -42, -7, -34, 27, -23, 34, -14, -1, -9, 10, -14, -43, 9, -19, -33, 33, -9, -25, -8, 40, 38, -28, 51, -25, 30, -3, -38, -13, 31, -4, 29, -18, -53, -35, 50, 37, -30, -4, -31, -24, -7, 
4, -30, -6, 41, 27, 49, 48, -53, 90, 50, 34, 15, 16, 15, -26, 9, 12, 42, -22, -32, 96, 5, 8, -38, -12, 18, -30, 1, -5, 49, -33, 6, -31, -35, 46, -48, 29, 3, 37, -1, 75, 50, 18, 25, 24, -7, -32, -20, -34, 41, 
41, 93, -66, 62, -68, 48, -32, 47, 24, -15, -36, 11, 42, 52, -29, -68, 43, 50, 60, 46, 29, 32, -72, -21, -53, -55, 7, 47, 96, 27, 14, -7, -85, 8, 37, 8, 59, -39, 12, -34, -24, -17, -27, 37, -53, 45, -52, -45, 76, -41, 
-12, -7, 5, 10, -102, 5, 71, 42, -54, -13, -23, -1, -75, 57, 8, -30, 49, 73, -34, 54, -15, 51, 70, -54, 60, -41, -40, 36, -23, -51, 37, -35, -61, -39, 31, 13, -22, 27, 25, 32, -15, -9, 38, -52, 36, 39, -5, -30, 4, -25, 
-38, 43, 4, 42, 49, 40, -19, 20, -21, 38, -27, 52, -53, -48, -11, 10, 66, 49, 4, 3, -37, -9, -24, 18, -88, -43, 19, 40, -48, 3, -17, 58, -70, 7, 17, 35, 30, -32, 127, -57, -50, 16, -4, 11, 55, -22, 97, -22, 24, -18, 
-10, 73, 4, -4, 57, -56, -28, -4, 22, -42, 42, -6, -23, 22, 47, -25, -56, -44, 67, 6, 17, 42, -17, 25, 94, 8, -16, 4, -24, 43, 33, -33, 20, -31, 29, -64, -12, -10, 6, 60, 14, -8, 31, -27, 0, 4, 51, 15, -58, 49, 
6, 9, 48, 4, 23, 42, -28, 13, 44, 64, 39, -53, -23, 12, -42, -69, -40, -58, 11, -41, 47, 38, 42, 32, -73, 5, -53, 44, 48, -42, -25, 31, -69, 5, 24, -13, 78, 30, -8, 10, -37, -2, 48, -54, -47, 15, 3, 22, -21, 44, 
-5, 64, -74, 30, 47, 28, 5, -14, 68, -16, -21, -6, -48, 27, -22, 76, 6, -60, 28, 24, -69, 12, 43, 28, 28, -18, -22, 13, -2, 50, 33, -9, 31, 34, -10, 28, -35, -54, -23, -31, -25, 49, 50, -67, 102, 3, -25, 37, 22, -43, 
27, 12, 69, -39, 43, 16, 39, 39, -10, 50, 50, -49, 48, -7, 48, 21, 46, -45, -13, 6, -18, 36, -37, 3, 10, -12, 47, -25, -23, 13, -23, 42, -44, 16, 48, -33, -3, 7, -36, -8, -53, -28, 32, -38, 11, -52, -11, -22, -21, -17, 
-18, -40, 1, -50, -29, -20, -27, 7, -51, -14, -38, -47, 43, -17, 22, -1, 4, 5, -48, 42, 24, -16, 28, -2, 5, 24, -23, -33, 45, 28, 14, -28, 17, 38, 23, -43, 3, 14, 18, 5, -20, -6, -13, -52, -2, 4, 14, -47, -7, -18, 
-49, -21, -9, 5, -33, 38, 1, 32, 25, -4, 50, 17, 7, 24, -43, -11, -4, 13, -48, -8, 35, 4, 23, -36, 38, 17, 3, -29, -31, 43, 45, -34, 58, -28, -37, -34, 50, -10, 50, 38, -28, -54, -52, -5, 65, -18, -38, 42, 30, 48, 
15, 4, 43, 50, -19, -35, 38, -25, 10, -14, -49, -45, -23, -39, 32, -13, -57, -46, -30, 13, -64, 40, 14, 31, -39, 12, 65, -47, 64, 18, -42, -53, 47, 17, 89, 30, -8, 54, 18, -52, 23, 13, -65, -45, -37, -33, -40, 4, 21, -13, 
-3, 0, -14, 7, -46, -16, -49, 51, 6, 42, -28, -17, 36, 15, -11, 55, -49, 4, -39, -16, 29, -1, 66, 5, 19, 7, -30, -5, -28, 12, -8, 34, -47, 28, -8, -37, 0, -57, 38, 33, 52, 36, 34, 59, 33, -9, 56, 11, -27, 11, 
-35, -4, -41, -49, -9, 40, 0, 18, 50, 54, 9, 31, 18, 40, 36, 47, -10, -14, 13, -26, -27, -30, 45, 41, 18, 19, 20, 42, -37, 48, -41, -39, 37, -4, -43, -52, -1, -29, -54, 34, -44, 44, 46, 10, -38, 16, 50, -31, -21, 34, 
20, -1, -40, -29, -32, -38, 49, 22, 1, 42, 59, -49, 21, 46, 28, 27, 1, 27, -15, -21, -43, -15, -41, 40, 23, -33, -47, 23, -26, 22, 18, 17, 39, 63, -24, -16, 50, -46, 37, 1, 22, 13, -37, -32, -44, -25, -22, -52, 58, 48, 
25, -21, 21, -12, -45, 27, 6, -83, -11, 42, -27, 9, -21, -11, 35, 27, 9, -14, 23, -28, -43, -29, -27, 47, 29, 47, 53, -3, -31, 11, 34, -51, -9, -4, 16, 8, -25, 30, 36, 36, 42, -20, 49, -40, 63, -22, -15, 19, 45, 15, 
-3, 8, 46, 20, -9, 13, 72, 16, -30, 0, -33, -46, 9, 9, -30, 2, -46, -57, 31, 1, 15, -24, -51, 53, -55, 21, -8, -46, -33, 26, -40, 55, -4, -37, 24, 46, -27, 34, 52, 9, -15, 29, -14, -18, -10, 22, 33, 48, 52, -32, 
33, -23, 50, -7, -37, 45, 10, 38, -6, -7, 52, 53, -75, -2, -14, -12, 1, 46, -11, 39, -1, -33, -5, 5, -55, -46, -17, -35, 38, 21, 16, 15, -33, 55, -4, -30, -11, 56, -64, 63, 35, -14, 33, 21, -9, 11, -7, 39, -1, 31, 
-18, 50, 11, 18, 59, -18, 34, 37, 15, 36, 38, -16, -17, -38, -25, -44, -38, -41, 23, -3, 3, -24, 80, 8, 17, -4, 1, -52, 16, -53, 34, -37, -38, 15, -19, -2, 73, 55, -14, 52, -26, 61, 13, -20, -79, 60, 55, -19, 45, 24, 
11, 1, -26, 19, -20, -70, -12, -27, 85, 36, 37, -6, 40, 21, -44, 29, 70, 65, 87, 52, -33, 29, -28, 13, 35, 25, 7, -14, -39, 47, 47, -39, -12, -13, -40, -23, 2, -49, -2, 53, -17, -24, -53, -72, 57, -41, -34, 23, -43, -31, 
-58, 44, 75, -3, -30, -45, -53, -9, 13, -27, 36, 51, -51, -20, -51, 29, 14, 22, -11, 42, -21, 5, -29, 45, -43, -30, 40, -40, -38, -16, 27, -28, -24, 35, -26, -49, 0, -39, -2, 18, 19, -39, 22, -27, 38, 38, -53, 29, 18, -23, 
46, -48, -17, 25, 30, 32, 26, -33, 12, 45, 15, -50, -32, -2, 2, -38, -25, 42, 27, 14, -42, -34, 0, -43, -15, -14, -46, -18, 36, 24, 32, -39, 2, 5, 20, -14, 27, 16, 53, 5, -19, -39, -28, -33, 2, -24, 21, 24, 1, -10, 
-40, 2, -9, -31, 18, -28, 38, -14, 49, 6, 7, -48, 16, -48, 34, 10, 37, 18, 52, 28, -18, -46, 8, -53, 16, 17, -10, -21, 32, 7, 38, 23, 58, -14, -12, -22, -4, -49, 34, -33, -26, -47, 6, -11, 49, 57, -20, -37, -49, -40, 
-23, 66, -15, -27, -32, -32, 45, 52, -40, 17, 55, -46, 22, 8, -15, -8, -40, -6, -4, -43, 45, 24, -10, 8, 1, -6, 21, 33, -11, -49, 4, 47, 37, -10, -37, 2, -35, -30, 52, 11, -23, 56, -14, 29, 49, 69, 5, -27, 50, -14, 
-40, 28, 9, 38, 17, -17, 14, -10, 53, -21, 43, -21, -71, 34, 43, -44, -25, 47, -26, 49, -33, 18, -7, 63, -25, -33, 1, 2, -14, -37, 16, 2, -3, -75, 8, -18, 79, 68, -1, -42, 67, -52, -60, -41, -22, 28, 54, -32, 28, 96, 
31, 21, 8, -43, 12, 33, -36, 33, 32, 32, 20, -11, -25, -51, 2, 29, -35, 33, -11, 35, 72, 44, -26, 37, 45, 57, 30, 55, -9, 6, 54, -47, -12, -28, 27, -26, 6, 28, -12, 6, 67, 4, -67, -42, 44, -20, 28, -44, -56, 18, 
-27, 61, -33, -34, -24, -10, -29, -19, 17, -47, 36, 15, 3, 33, -50, -24, 0, -26, 9, -65, -9, 10, -39, 1, 5, 21, 20, -10, 70, 20, -54, -48, 3, -29, 16, 11, 35, -45, -50, -48, -42, -9, -49, -61, -36, -18, 23, 48, 16, -12, 
5, -16, -47, 27, -4, 34, 31, 52, -6, 8, 24, -10, -47, 43, 20, -62, -2, 2, 16, 64, -19, -12, 33, -49, 55, -14, -31, 20, 44, 0, 38, 47, -26, -39, 73, 13, 37, -17, 39, 14, -45, -24, 52, -34, -45, -35, 20, 30, 45, 7, 
-37, -29, -34, -48, 62, -30, -33, -27, -14, 56, 45, 39, 44, 19, -14, 24, 15, 39, -6, -32, -25, -33, 9, 29, 58, -9, 42, 39, 60, 54, 27, -14, -15, -10, -53, 53, 9, -4, 17, 28, -39, 50, 26, -56, 38, -12, -9, -28, 66, 45, 
-12, -29, -33, 20, 37, 35, -7, -41, -34, -49, 34, -26, 11, -18, 30, -25, 23, 61, 52, -39, 43, 36, 20, -7, -44, -7, -11, -15, 15, -37, -46, -62, 26, -9, -52, 1, 64, -16, -49, -32, 41, -18, -67, 52, -8, 37, 25, 25, -13, -34, 
-19, -31, 22, 51, -46, 36, 48, -31, 25, -8, 94, 20, -10, -25, -40, -36, 33, 54, 3, -27, -17, -10, -12, -46, -19, 1, -36, 29, -16, 0, 48, -21, -53, 22, 30, -9, -16, -40, -60, 62, -37, 29, 17, -33, 34, 45, 38, 21, 18, -14, 
-41, 30, -26, -17, -35, -37, 22, 44, -68, 41, 26, -37, 5, 14, -21, 63, -7, -39, 2, 33, -9, -44, -56, -13, 48, -62, 64, -23, -8, 3, -16, 45, 83, 54, -9, -48, 41, -20, 13, 24, 29, -42, 21, 2, 88, -29, 7, 57, -24, -12, 
20, 37, -36, -2, 33, 38, 16, -28, 37, 24, -47, -41, -8, -45, -38, -41, -33, -64, 13, 51, -6, -36, -30, -3, 0, 54, -11, 51, 19, -29, 28, 2, 11, -45, 3, 1, -36, -51, -4, -27, -30, 51, 6, 45, 35, -29, 25, -1, 6, -40, 
41, 23, -55, 37, -46, -22, 47, -13, 37, 55, -28, 42, -24, 0, -4, 42, -34, 6, 27, -38, 1, -50, 11, -10, 34, 36, -31, 0, -11, -31, 16, 48, -50, 0, -52, -35, -43, 5, 36, 20, -7, -1, 39, -17, -6, 28, 9, -26, -4, -49, 
-26, -24, 66, 48, -12, 0, 51, 38, -36, -7, -14, 9, -37, 57, 63, 56, 34, -54, 35, 10, -37, -35, -48, 53, -37, -41, -17, 63, 7, -21, 11, 13, 11, 28, 32, -31, -34, 9, -40, -55, 52, -43, -28, 36, 3, 47, 18, 5, -14, 42, 
57, -21, 27, -35, 9, -9, -19, -31, -9, 43, 26, -13, 11, 11, -48, -6, 33, -5, -31, -31, 82, -47, -14, -9, 12, -25, -45, -37, -68, 38, -25, -55, -34, 19, -69, 37, -22, -8, -58, -4, -26, 51, -20, -19, 54, 10, 4, 32, 102, 16, 
-9, -55, -22, -30, -13, -9, 2, 6, 40, 52, 4, 54, 49, -13, 4, 22, -67, 13, 42, 4, -15, 25, 36, 14, 30, -76, -38, 19, -13, -6, 11, 24, -11, -81, -32, 42, -71, 36, 55, -45, 37, -57, 63, -21, -42, -41, 5, -7, 49, 24, 
44, -43, 39, 9, -4, 15, -17, -53, -63, 48, -34, 48, 14, -47, 41, -44, 28, 58, 10, 24, 18, 62, 58, 37, -3, 56, -25, -38, 44, 15, 37, 5, 2, 46, 59, -50, -6, -20, -14, -7, 4, 31, -22, -24, 2, 7, 24, -42, -37, -6, 
49, 10, -16, 44, -40, 18, 51, -56, -36, 0, -60, -18, 23, 13, -3, 61, 40, -12, -21, -23, -38, 53, 30, -8, 23, 11, 12, 13, 43, 46, -45, 14, -30, 14, 1, -53, 5, -1, 6, -42, -56, -34, 59, 30, -9, 38, -2, -9, 11, 36, 
-39, -25, -39, 51, -2, -19, 32, -38, 51, -15, -16, 54, -31, 52, 0, -13, -5, 41, 33, -3, -40, 8, -9, -4, 34, -48, 5, 17, -7, 15, 44, -2, -44, 18, 48, -47, 27, -7, -12, -14, -19, 31, 54, 14, -5, 18, 10, -13, 30, -10, 
-44, 34, -24, 1, -9, -19, 39, 42, 12, 13, 45, -2, -25, -13, 5, 37, 33, -48, 55, -41, 15, 50, 38, 33, -46, -28, -34, 43, -37, -50, 39, -31, -8, -24, 37, 23, 19, -41, 8, -30, -42, -26, 6, 42, -32, -24, -47, 12, -35, 53, 
15, -14, -10, -9, 24, 50, 5, 12, 29, 26, 29, -46, 38, -47, 45, 7, 13, 19, 7, -39, -24, -38, 3, 2, -46, 1, 39, -49, -26, -37, -13, -41, -48, -7, -29, 49, -38, -1, 0, 9, -26, 2, 19, -14, -37, 5, -10, 16, 40, 15, 
46, 16, 11, -12, -5, 45, 28, 50, 50, 16, -48, 32, -36, -48, 33, 32, -42, -26, 9, 26, 18, -17, 12, 25, -1, -3, -41, 25, 53, -34, -45, 57, 28, 8, -44, 9, 69, -8, 51, -47, 5, -24, -32, 27, 23, -23, 0, 17, -35, 22, 
32, 29, 11, 36, -17, -46, 31, 38, 43, -44, 19, 1, 63, 19, -36, 46, 9, 66, 2, -42, -51, -19, 15, -53, 14, -25, 26, -2, 34, 44, 58, -23, -36, -43, 51, -45, -37, -48, 41, -21, -40, -28, -15, 56, 88, -1, 51, 19, 7, -30, 
51, -61, 0, 61, 0, -39, 23, -31, -22, 38, 29, 19, 7, -38, 46, 11, 12, 12, 33, 54, -28, 30, -51, 14, -4, 33, 53, 14, 13, 34, 66, -45, 67, -26, -44, 27, -46, -44, 33, 33, -13, 28, -15, -9, -9, -21, -38, -38, -13, -65, 
36, -3, -36, -36, -26, -13, -13, -19, -30, -9, -35, 72, -22, -32, -39, -4, -33, 48, 44, 16, 19, 22, 26, 40, 34, 38, 13, 65, 49, 26, -45, -1, -33, -27, 22, 53, -16, -10, 20, 37, -75, 22, 25, 13, -39, -15, 14, 3, 9, -4, 
74, -7, 6, 28, 25, 29, 22, -40, -38, 16, 26, -7, 36, -52, -64, 48, 60, -54, 53, 24, 5, 1, -29, -25, -34, -37, 63, 37, -26, 18, };

#endif
